[-0.21379605377268923, -0.25207743417419115, -0.6396618190305664, 0.5288483991671536, -0.10265212479523314, -0.31057232702694576, -0.45873632022383565, -0.3756222272219484, 0.20203368568516789, 0.9528303347990581, -0.8155491268149209, -0.07207546751242505, -0.7731022113737273, -0.14522391208186447, 0.997216576799249]
[1.3635703810056088, 0.600285045320064, -1.5877031836905564, 1.162988569309671, 0.11900037804761827, -0.5478257073405678, 1.965315291375092, -0.6416931435410005, -1.8404226874627168, -1.0346608301194045, -0.03632988262574686, 0.00030293031396704456, -0.024086512532538854, -0.022009844372398776, -0.4468987934117772]
[0.09214498773360257, -0.919122552663625, -0.6125222777701216, -0.9585994606135714, 0.667368315417288, -0.01732920877379138, -0.7428054605752484, -0.3460170948524939, -0.15500032417593979, 0.3735330418966735, 0.31844892337355746, 0.4939370872490768, 0.813776658243477, 0.7021727852839644, -0.5761068151413107]
[0.15599302088977393, 0.45816524047309193, -0.5689692064682489, -0.5842995129677125, -0.2810944818798172, 0.4999926199309876, -0.03363833313081181, 0.07619398242547434, 0.07452125164193125, 0.8956120028260829, -0.9963418169126231, -0.788314468038471, -0.810575733994031, -0.9771627534414536, 0.8489006994523329]
[0.12483057893740596, -1.1320224214517536, -0.2615947650730437, 0.03185588396553424, -0.25123542746179567, -0.36546729768870717, 0.12302260847598134, -0.7060913392097522, -0.6971516571065306, 0.9640938780281193, -0.36275056819598506, -0.3591977171133933, -0.02580834273622256, 0.09570965914192578, 0.3640124459828689]
[0.08988491505958913, -0.5016313653504229, 0.6038888665503528, 0.35785649311558243, -0.5754442096270539, 0.7327235746733498, -0.36438906704759727, 0.5846642803259837, 0.8291322433502579, 0.4864914156959522, 0.7785903221681014, -0.44869546220320444, 0.8621097616073138, 0.42048927282950355, 0.7905600679397652]
[0.01645028793688842, -0.5105595228352678, 0.5590400697432303, 0.4460525780465454, 0.8321258933666135, 0.7194338253158991, 0.15479851571619535, -0.009666113847820618, 0.7647632046166892, 0.17643755829911129, -0.8384712218284338, 0.2005196943557262, -0.6578916386339609, 0.7748415691662833, 0.26537874288751273]
[0.1327689758842362, 0.7154930593652541, -0.011944860784005107, 0.5396480411441322, 0.6354552825091285, -0.5791938031627858, -0.33214330972965717, 0.6899601583333383, -0.7622883695623538, -0.23899909326640356, 0.2615471185062726, 0.6774195159576014, 0.7577176227049259, -0.6472867319889964, 0.5023871363466889]
[1.2780590997323436, -0.5992755253112746, 0.16304062824027715, 0.6454599008689054, -0.12949998628714326, 1.011464864971323, 1.2915708079320276, 0.4922132711510875, -0.4850026776768947, -0.06735676357684492, 0.010759467682863184, 0.1005200966023612, 0.05061751596275196, 0.02687780403761031, -0.05827932082005958]
[0.6670383591236031, 0.6314505590291597, -0.5400064945839158, 0.6346756450722226, 0.8845553136609007, -0.4338269878166097, -0.08836068260457404, -0.6258808639106938, -0.06528592873829857, 0.9883888761603091, 0.6656683642792489, -0.20749025731362067, 0.36041810971292293, -0.6569144447392289, 0.6385965480484728]
[0.45438363516241154, 0.6311445868834487, 0.3582074014777069, 0.2493157725314092, 0.13951190762945054, -0.8460845007898109, 0.993443907548321, -0.3693521325651504, -0.07458544698254324, -1.1520018163605996, -0.0568581258771677, 0.008011197052334537, -0.03885004869418743, -0.04336067833056525, -0.4287240604044928]
[-0.7607730515337461, -0.6113772371295357, -0.8057751191184479, -0.7208855247256492, -0.9690357442088015, -0.375433843734541, 0.2742614009345261, 0.2812869065644668, 0.4987130709802627, -0.200938430874105, 0.18619254445906008, -0.5261070335423814, -0.4754289601685021, -0.38737908670931054, 0.6293013090585907]
[-0.4378723803102176, -0.07402956017213547, 0.06445619919322701, 0.10327101980802203, 0.8379808241842482, -0.6201614107938784, 0.711341617889742, -0.7428900225481442, 0.7599668642116365, -0.028497053226012623, 0.6478239537305673, -0.9224302191538581, -0.9434708780672628, 0.8349785013826572, 0.7053378925366747]
[0.28812236980632405, -0.1785169984174045, 0.9105108074982402, -0.0004579442575208437, 0.309755027421383, -0.8443653741785224, 0.5499994390733925, -0.10497766833576945, -0.570384994504156, -0.7943997269803081, 0.5786224492584805, -0.7179715630162392, -0.9926739612474734, 0.8636431986976545, 0.793548217273076]
[-3.6103371128196606, -0.6310549195035676, 0.9108908505371909, -1.4738699913314746, -1.1914287740134764, 0.12155160548312617, -3.08565042864619, 0.5832492433161467, 0.5477342027115165, 1.1091477591783687, -0.02523689020712316, 0.09939693554814891, 0.017720194543464157, 0.010585289030573288, 0.4619281031480172]
[0.7086591477693698, 0.04043458694273989, -0.27072975620806583, 0.2465680580602666, 0.32368057083322577, -0.4089942328357337, 0.07385291352714689, 0.9246162196725489, 0.5977234754733004, -1.0009729029006427, -0.10642066506629963, -1.0920123977458962, 0.9931978794596396, -0.36667349322105924, 0.3739527630676314]
[0.2021160920375319, 0.14481067261823571, -0.5462156383397103, 0.6246008585332927, -0.6679429920385016, 0.5742047399165539, 0.2815810225124674, 0.5985095960690436, -0.9905730975474737, -0.02458218450700776, -0.8409123674161763, 0.13986731915291853, -0.5012903575344727, -0.35145575093066306, 0.3827138641541349]
[0.9467576399083991, -0.38210326615660795, -0.7553303858697498, -0.19534174737399054, -0.7229630113310166, 0.9392499253652438, 0.18066917299551896, 0.3462518099623441, -0.28270917581041344, 0.3629902727121891, -0.7610271944596436, 0.7780342955751499, -0.8722863394974671, -0.6524631474283862, -0.6051439911064069]
[1.3250727735739087, -0.24867698642087907, -0.6074729423454044, 0.6929580805590141, 0.16360683082295627, -0.42730939605905127, 2.046664665302348, 0.20579340691277095, 0.5976801550527927, -0.3221547126384136, -0.020436169650920887, -0.004752167511347723, -0.025385648776818703, -0.017872147977164656, -0.47943186415306255]
[0.9697269121128076, 0.7663993741185365, -0.46296316538255955, -0.47716804107556937, 0.273147688941921, -0.6669925814781873, 0.0439703151040079, 0.2713531868794482, -0.45461162157420804, -0.5063210020298335, -0.363522780766605, 0.12632183618297754, 0.6025021398366364, 0.2802240639006475, -0.2506190203715007]
[-0.23122819072318826, -0.2640355299621296, -0.6665414486164967, 0.223609555797507, 0.9919393980445836, 0.5849580541676258, 0.2725404539685955, 0.8929224132463657, -0.3179089747861522, 0.23029166236200052, -0.4087831525886618, -0.08252690923106872, -0.4952178415361131, -0.6889690434482242, 0.1484483917661055]
[0.7066172160058994, 0.7001784013341481, -0.38494029818231673, 0.6873059425728937, 0.6042284527578529, 0.41503727177304295, 0.09890648502205035, -0.7170427372055133, -0.11829103951527553, 0.6893338670553695, -0.5915344877158225, 0.6347549224244942, -0.8309512221578041, -0.027543390294446198, -0.33754807134678083]
[0.32178721919731856, -0.48554225575809884, 0.6372799317119158, -0.5373399765318767, -0.19196194381825857, -0.03869561821273803, -0.6785288323955381, 0.9151061011245066, -0.6227237206028492, -0.9171167204893224, -0.6692662303239835, 0.2878542476595883, -0.8361686985838163, -0.5186538946634631, 0.43531631921509084]
[-0.06183634316366368, -0.2472254981469026, -1.1395058304291146, 0.7266973011015216, 0.5809564516654362, -0.4676017897273165, -0.3774342060730314, 0.09646234072972805, 0.3891770627680412, 0.5369474019920368, -0.40169932910905415, 0.41299832729929603, -0.012575946773778933, 0.01849519378911422, 0.207966938299424]
[0.28916639085298673, 0.4847474154416409, -0.6137183825827621, -0.8966448144197771, 0.8380085836479846, 0.5258746006366388, -0.8169353534242546, 0.18110713049187596, 0.02849185980408923, 0.006146699744732254, -0.6210436259047455, -0.9674336075046789, -0.44744596764045214, -0.4486524975027623, -0.5630100466524615]
[-0.9399011701803067, -0.24220401212616607, -0.9436801257144661, 0.36850855171153246, -0.539749613361909, -0.3436346490041152, 0.5179968376067491, -0.22096895402451913, 0.003033166572064763, 0.36505739205402044, 0.1866589969625593, -0.03683336586979103, 0.03820392684356334, 0.019677423346405598, 0.4715377697757881]
[0.5537973490881309, 0.14348393810338766, 0.5733789473184362, -0.552959739587631, -0.2466419456427114, 0.20348621028023314, 0.7395498464913395, 0.6618586867406757, -0.30963636729087557, -0.3097897010398259, 0.7422490719761378, -0.009142755700053441, 0.8363118774999914, 0.11131977582093085, 0.3655430310477648]
[-0.16115663535426472, -0.6248700533395858, 0.23053643684254835, 0.5088388668490049, 0.37878455496564173, 0.6546267917686235, 0.5957614351465087, -0.3257191510343803, 0.41087939259980977, -0.35303550652050714, 0.47936972363147073, -0.4570624976054464, 0.6386579636686208, 0.7993365306357153, -0.12074015350286679]
[-0.48243610077759047, -0.6122204289138768, 0.28533402961107507, 0.9495626425609144, -0.1373792623213569, 0.567119688452165, 0.8145638093647053, 0.11832816307581283, -0.15030102418570213, 0.3267219449832781, -0.20728045517597013, -0.09980350881927631, -0.3392183370717227, 0.05617674395143231, 0.08022610700976397]
[0.6735116634655132, 0.4147763005724306, -0.9724817615204114, -0.47593862950658744, 0.39842839554606274, -0.6184707580368052, 0.508132788268714, -0.6727790828406028, -0.7506385622889963, -0.017941638541903795, -0.7216217242434687, 0.9006034170716132, 0.00037211855078563683, -0.08171932896390607, 0.1375960366988183]
[-0.029302459966052418, 0.5209435185575647, 0.43852988252165825, -0.3478399150263657, -0.033156589370779796, -0.08183836072189522, 0.21330399684332707, -0.7217623752677453, 0.03857401335800761, -0.8285241689286967, -0.33931914536970426, -0.4569757342468808, -0.5159127797081835, -0.8645993594445657, -0.056080485428766765, -0.3073414966431464, -1.0114101469616952, 0.11717053596672128, 0.9396335247149624, -1.0501553551122296, -0.1902126095009128, -0.34561269931201144, 0.13663158416210594, -0.7180052020157638, 0.5789178320767313, -0.39385780309721646, 0.6489500771220457, -0.5776093675561508, 0.6084575706581553, -0.3006481480428243, -0.6939738715641889]
[0.2497542968431254, -0.17478284294719448, 0.8823160657425012, -0.825939868262891, 0.43003319364332376, 0.29896157127187756, 0.6975304116339788, 0.6601041425183894, 0.592187059665287, -1.1496613953313037, -0.2738480137623699, 0.34199551483696294, 0.34998593245745396, -0.02174372937680511, -0.2648701071413895, -1.007336827477359, 0.3841817304487569, -0.8875071181098269, -0.08636584001719619, 0.7773352669609073, -0.5866761281613696, 0.8482040789062734, -0.3609549832840713, -0.9590788616705038, 0.023649052726142813, 0.5139541067146095, -0.7508054775289523, 0.40642005909100404, 0.3129937355464433, -0.8583301085763347, -1.169023569403085]
[-0.7533378499489634, -0.8647104091907699, -0.5641241828710775, 0.26057661704955665, -0.9487712497288967, -0.40000862573273854, 0.3935045031364593, -0.1534614907373159, -0.6653793021936731, -0.7761727440913554, -0.6476773696149203, 0.7012419563137959, 0.6309967300216771, -0.5059593106093481, 0.7561317530497857, -0.5350724206135923, -0.11953413669898627, -0.6934817485838017, -0.4617444116833808, 1.0271524656444224, -0.05050827525379223, -0.08280912264067075, -0.7017701095968366, -0.2731008635252674, -0.7862980573479422, 0.24131930228786214, -0.35472807431555187, 0.9149725628496046, 0.8450793326470796, -0.8591852825761361, 1.1923044008248809]
[-1.1955997901675812, -0.29436858401345933, -2.009962247755122, -0.35252271633374405, 0.10040335912337653, 0.8187517825804415, 0.5455399950985133, -0.9033352555846644, 0.4962271604583531, 0.8111882756338429, -0.021460324626595785, 0.08565661901926552, -0.4181392949874459, -0.5730632770818133, 0.6640373029011143, 1.2384643686295234, 0.010829029946074395, -1.0130820119901476, -0.6241017615980446, -0.013166980357524111, -0.9590572380546135, -0.6537935153921257, 0.8761784213108724, 0.011783452157037532, -0.22271404209093565, -0.6427871271190359, 0.5809317358709405, -0.9932612607521379, 0.08623342017314871, 0.5507238762399524, -0.43017093184981847]
[-0.19414198890303136, -0.4595382159680903, 0.620033709268516, -0.5146458673223383, 0.6991358972734133, -0.251691942472199, -0.3531708141231963, -0.196328944671557, 0.4253574449427281, -0.8461368000433533, -0.603540263018723, -0.8503908588277328, -0.5064974921890032, 0.24389918685699558, -0.7594404724586163, -0.04894399805176051, 0.938436078655846, 0.3317144274656427, -0.15352743622010748, -0.5820075876270367, 0.10037588786336372, 0.06088710958053899, -0.04279580399715066, 0.12288587587056589, 0.032843875425248574, 0.09251178983146091, 0.37353116720374957, 0.5916729632486168, 0.13226168224436752, 0.71654327815055, -0.09714559754957117]
[1.2858188300788114, 0.19476809149828936, -2.07114782572311, -1.918654364737861, 2.2477860059380217, 0.2456441960346962]